{
  "NW": 6501,
  "W": [3.209332, 1.416453, -0.434982, -0.333408, -0.778069, 0.499013, 0.336418, -0.427252, -0.983671, -0.368893, 0.692133, -0.370679, -2.002008, -0.843333, 1.780877, 1.569993, 0.564473, 1.877297, 0.189578, 1.356378, 1.573266, 1.663308, 0.388777, 1.852344, 1.087414, 1.073912, -0.335948, 1.274735, 1.543738, 1.368830, 1.277787, 2.066159, 1.381086, -0.091846, 1.032179, 0.997425, 1.944490, 2.566052, 1.230385, 2.125431, 1.517581, 1.753900, 0.830125, 1.549462, 0.829528, 0.399484, 1.422067, 2.241063, 1.221721, -0.017005, 0.353255, 0.771671, 0.555132, 1.121766, 0.983691, 0.825662, 1.403248, 0.180018, 1.610884, 0.720668, 0.688933, 1.932927, 1.719240, 1.216294, 1.421428, 2.098865, 0.356732, 0.182191, 1.607847, -0.040745, 2.269466, 1.008163, -0.061700, -1.169788, 1.805733, 1.818348, 1.969798, -0.629854, -0.365780, 0.595396, 1.950180, 0.316292, 1.413356, -0.914254, -0.449738, 0.463932, 0.705517, -0.824963, -0.180573, 1.589973, 1.686550, -0.055384, -0.606943, 0.227144, 0.406921, -0.090998, 0.105310, -1.059038, 1.083059, 0.491524, 0.980697, -0.815569, 1.234756, 1.932511, 0.221345, 0.089974, 1.312505, 0.267497, -0.260537, 2.408351, 0.924113, 1.707370, -2.777424, -1.364402, -1.406760, -0.535089, -0.524853, -1.664866, -0.942065, -1.113082, -1.043759, 1.936519, -0.085050, 1.513925, 1.693602, 0.511553, 0.501380, 1.195919, -0.329947, 0.676228, 1.517119, -1.134667, -0.324528, 1.131665, 0.576965, 1.912672, 0.520842, -0.851357, 1.935872, 1.577671, 2.643514, 2.110189, 0.327822, 2.460085, 2.637232, 1.066640, 1.312894, 0.777141, 1.433694, -2.403458, 0.634111, 0.253792, -0.455207, -1.017808, 0.334693, -0.201953, 0.386389, -0.400456, 1.638242, 0.685889, 1.957606, -1.126943, 0.932193, 0.027556, -0.415576, 0.935576, -1.111032, 1.353920, 2.310899, 0.634629, -0.540874, 1.203602, 1.105790, 0.898464, 2.419567, 0.823596, 1.053261, 1.772788, 0.377375, 1.149580, 1.265574, 1.128347, 0.779432, 1.459980, 0.674411, 0.993372, 1.765143, 1.089869, 1.035610, 1.492098, 1.547461, 2.154969, 2.355293, 0.953799, 0.064777, 2.085783, 1.527249, 1.567279, 1.019007, 1.506522, 1.292311, 1.333067, 1.508115, 1.792776, -0.366685, 1.151139, 0.850578, 2.046718, 0.809008, 0.238587, 0.188237, 0.064844, 1.240223, 1.238830, 1.528633, 1.635268, 2.649600, 1.355940, -0.261227, 1.442730, 0.273917, 0.343207, 0.108497, 0.514296, 1.545750, -0.713590, 1.441770, 2.328475, -0.526757, 0.226758, 1.303095, 0.179535, 1.399939, 0.383182, -0.187842, 1.456306, 1.688726, 1.081203, -0.141782, 1.350924, 0.303596, 1.332638, 1.243532, 1.051913, 0.719491, -0.395582, -0.016321, 1.282831, -0.105124, 0.630829, -0.318431, 0.186590, 1.580748, -0.648955, 1.943893, 2.434242, 0.780847, 0.938684, 2.362999, 0.824637, 1.851412, 1.999476, 0.725334, -0.698541, -0.064272, -0.525390, -0.673161, -1.525063, -1.244020, -2.027773, -0.097191, -1.052268, -1.805789, -1.074340, -1.378522, -0.897889, -1.135429, -1.878735, -0.523269, -1.520184, 0.130427, -0.409518, 1.321363, 0.226928, 0.513348, -1.343711, -1.257640, 0.051948, 2.570229, -1.419921, -1.649895, 0.319986, -2.463092, -0.430342, 2.847544, 1.551962, 0.134062, 1.070461, 0.624809, 1.181768, 0.724628, 1.683175, 0.171074, 0.156428, 2.416175, -1.204808, 1.127880, -0.160261, -0.026946, 0.988537, 0.132329, -1.821976, -0.715326, 0.909507, -1.219845, -2.314524, -0.050204, -2.230050, -0.460798, -1.132399, -1.566283, -0.005909, 1.357285, 2.363306, 1.203604, 0.644699, 0.218038, -0.228423, 0.026947, 0.854042, 0.498511, 0.249732, -0.604227, -1.028909, -1.263313, 0.775366, 0.250094, -0.635673, 0.066473, 1.816929, 2.042752, 0.140242, 1.465232, 0.564937, 0.379122, 1.078585, 0.104945, 0.075441, 1.214814, 0.479099, -0.686677, 1.862465, 0.100224, -0.628652, 0.684561, 0.076316, -0.647807, 0.494559, 0.863873, 1.196080, 1.321893, 0.160175, -2.160731, -2.603830, -1.892975, -2.006626, -1.196705, -1.655223, -1.189691, -1.436279, -1.525671, -1.676807, -1.705185, -2.262619, -3.089371, -0.698531, -1.244190, 0.836387, 0.000264, -0.644042, -1.003840, -1.396876, -3.125147, -1.423849, -0.181088, 0.612418, -1.569011, -0.596290, -1.578038, -2.346612, -1.473368, 1.646235, 0.202561, 0.747879, -2.010298, -1.745234, -1.215383, 2.123656, 1.400934, 1.068188, 1.555213, 0.056142, 2.022435, 1.904267, 1.051287, 1.495680, 0.912528, 1.298231, 1.731876, 2.166237, 1.550183, 1.472599, 1.689004, 1.400578, -0.310789, 1.382188, 1.670502, 1.157639, 2.490759, 2.214064, 1.441475, 1.866106, 0.851838, 0.263620, 1.699927, 1.249861, -0.173028, 0.661879, 0.187458, 1.938375, -0.090428, 2.653967, -0.080773, -0.238996, 1.585923, 1.564841, -1.071718, 2.342914, -0.817865, -1.305119, -2.975163, -0.054425, 1.239524, 1.509255, 0.752155, 0.294775, 1.513189, -0.084458, -0.106861, 1.651023, 1.961439, 0.276825, 0.162009, 2.067377, 1.439871, 1.088193, 0.779830, -1.057717, -0.155977, 0.193126, 1.311242, 0.848514, 1.041842, 0.716168, 1.764494, 1.229377, 1.939435, 2.058328, 1.345366, 1.169073, 0.852489, 1.769165, 0.332324, 0.237009, 0.699284, 1.164181, 1.038818, 1.196062, 1.754379, 0.804263, -0.509597, 1.844737, 0.347120, 1.731445, 0.594335, 1.893300, 0.981451, -1.720886, 0.338796, 1.167529, 2.271447, 1.275902, 0.458353, 0.247192, 0.679385, 0.810846, -0.764584, 0.425860, -1.895530, -0.490708, -0.815583, -1.032335, -0.798659, -1.987988, -2.261463, -1.547641, 0.119271, -0.767316, 0.974653, 0.454583, 0.646949, 0.935437, 1.629479, 1.439957, 0.314493, -0.690670, -0.593870, -0.975620, -0.082084, -0.685567, -0.581506, 0.398942, 1.063411, 0.172378, 0.085331, -0.898011, -1.515778, -1.687551, 1.534471, 0.781118, 1.125699, 0.087211, 1.202449, 0.358139, 1.176168, 0.016907, 0.407062, 0.774646, 0.923783, -0.152609, 1.758796, -0.822317, 1.492945, -2.000664, 0.041078, 1.833020, 1.284489, 2.031818, 0.281385, 0.529080, 2.310045, 2.076290, 2.445257, 1.326216, 2.648591, 1.798448, 1.404974, 1.599074, 0.945475, 1.453280, 0.998298, -1.084788, 1.222628, 1.405928, -0.082672, 0.273183, 1.947998, 0.107152, 1.276359, 0.685463, 2.412223, -1.040101, 0.100985, -1.859668, 1.211479, 2.353996, 0.263096, 0.930828, 2.518678, 2.007443, 0.542278, 1.979950, 1.588149, 1.113881, 2.409499, 0.751302, 0.962043, 1.587237, 2.400660, -0.403985, 0.949820, -0.238190, 0.153116, 0.201099, -0.412770, -0.293023, 0.229365, -0.351980, -0.161688, -0.259306, 0.021069, -0.358097, -0.018780, -0.075823, 0.176324, -0.184323, -0.058238, 0.879530, -0.702116, -0.498525, 0.446365, -0.182416, 0.413059, -0.015774, -0.562611, -0.656454, -0.277728, -0.139554, -0.269201, -0.576052, 0.221316, -0.160985, 0.396023, -0.180314, -0.218652, -0.713768, 0.118172, 0.035254, -0.603763, -0.106628, 0.608641, 0.222475, 0.549521, -0.149563, -0.121660, -0.461954, -0.754645, 0.522799, -0.392297, -0.717264, 0.508211, -0.309608, 0.137616, 0.028844, -0.439869, -0.111111, -0.188498, -0.104994, -0.322374, -0.381153, 0.741552, 0.453865, 0.609345, -0.011240, -0.215435, -0.262638, -0.181485, 0.386346, -0.199762, -0.531849, 0.155510, -0.375278, -0.139413, -0.168984, -0.004497, -0.707989, 0.487572, 0.750193, 0.577096, -0.542000, -0.204903, 0.179822, -0.253433, -0.279884, -0.086904, 0.221948, 0.122818, 0.633432, 0.172231, -0.605301, 0.232191, -0.176977, 0.374218, -0.186442, -0.049318, -0.195288, -0.307343, 0.845984, 0.160317, -0.253483, -0.460346, -0.062566, -0.473596, -0.432879, -0.177844, 0.177303, -0.114393, 0.872910, 0.347626, -0.115762, 0.232686, -0.030061, 0.428198, -0.544938, 0.344568, 0.112263, 0.120532, 0.587181, 0.032061, -0.115294, -0.004931, -0.173016, 0.360645, -0.296543, -0.030686, 0.013213, -0.132329, 0.495646, 0.180631, -0.213426, 0.350732, 0.077595, -0.594870, -0.271687, 0.216549, -0.410030, 0.135781, -0.182012, -0.322909, -0.350612, -0.001863, -0.350579, 0.278045, -0.457675, 0.355251, -0.641759, 0.140963, 0.750661, -0.344476, -0.259362, 0.307449, -0.184943, 0.174780, -0.478976, 0.316765, -0.466058, 0.188240, -0.027125, -0.232345, 0.358745, 0.751909, 0.234653, 1.030584, 0.088779, 0.206533, 0.012358, -0.287991, 0.118148, -0.558778, -0.359331, 0.352651, -0.619085, 0.462013, -0.356616, 0.118904, 0.297562, 0.330891, -0.439297, 0.277454, 0.089682, -0.353992, -0.466850, 0.125972, -0.059527, 0.646583, -0.113230, -0.026784, 0.421261, 0.611782, 0.605661, 0.200199, 0.175781, 0.083903, 0.074234, 0.100504, 0.128205, 0.030921, -0.224551, 0.281819, -0.100393, 0.532460, -0.151773, 0.486662, 0.020429, 0.047392, -0.029023, 0.031482, 0.140609, -0.080497, 0.099605, -0.352053, 0.255412, -0.154554, 0.141833, 0.662159, 0.453337, 0.087875, -0.046612, -0.236741, 0.277506, -0.918667, -0.475383, 0.736165, -0.178257, 0.143779, -0.367413, 0.068563, -0.204212, -0.171580, 0.558186, 0.328389, -0.155531, 0.065328, -0.335669, 0.414468, -0.063536, -0.085184, -0.714317, 0.369494, 0.433611, 0.251902, -0.058821, -0.247450, -0.203210, -0.482825, 0.488327, 0.139096, -0.127779, -0.082289, -0.161425, 0.260423, -0.133973, -0.349673, -0.238339, 0.544089, 0.095916, -0.317783, -0.164861, 0.034205, 0.040850, -0.149058, 0.047837, 0.514790, 0.088094, 0.252948, 0.058658, 0.055565, -0.238617, 0.735321, -0.617416, 0.144043, 0.170041, -0.192054, -0.395319, 0.329006, 0.248148, 0.256605, -0.085409, -0.013025, -0.144892, 0.383731, 0.244656, 0.328832, -0.406004, -0.433256, 0.320303, 0.170048, -0.151174, 0.471927, 0.036786, 0.396360, -0.122639, 0.047923, -0.900623, 0.494981, -0.121053, -0.509613, -0.145184, -0.092604, -0.029416, 0.330183, 0.244150, -0.106214, 0.754643, 0.593657, 0.589609, 0.787051, -0.371340, -0.391898, -0.018512, 0.185608, -0.005963, -0.675587, 0.723679, -0.221844, -0.042945, 0.073391, -0.451823, -0.353447, 0.563420, -0.115453, -0.302316, 0.445701, 0.046399, -0.295480, -0.152501, 0.073748, 0.137950, 0.022132, 0.416356, -0.021530, 0.036740, 0.338639, 0.060581, -0.459132, -0.357327, -0.133152, -0.145648, -0.148192, -0.821222, -0.656468, 0.276599, 0.551940, -0.063356, -0.008801, -0.252999, 0.245091, 0.635540, 0.111039, -0.395612, 0.242048, 0.059289, -0.166622, 0.196283, 0.143633, 0.285774, 0.922817, 0.354922, 0.058342, -0.082868, -0.717973, -0.153111, 0.621106, 0.233671, -0.060354, -0.424485, 0.118354, -0.457273, -0.318010, -0.629339, -0.619818, 0.116156, -0.411790, 0.291301, 0.531875, 0.694580, 0.834031, -0.189230, -0.051160, 0.207895, 0.368801, -0.214773, -0.692231, -0.400789, -0.339759, 0.139605, -0.402783, 0.114024, -0.100331, -0.111523, 0.445769, 0.301032, -0.128915, 0.610038, 0.651196, 0.263008, 0.726404, -0.157116, -0.240463, 0.607939, -0.235683, 0.078602, -0.042740, -0.367210, 0.509932, -0.179888, 0.310827, -0.435458, 0.145188, 0.041669, 0.052479, 0.648490, 0.586210, 0.574226, 0.479456, 0.051949, -0.011055, -0.295793, -0.335417, -0.378411, 0.163813, -0.304749, -0.055749, -0.443966, 0.211646, -0.037659, -0.174120, 0.099422, 0.400560, -0.511301, 0.458891, 0.389950, -0.090791, -0.181782, 0.377442, 0.236166, 0.211253, 0.251691, -0.213913, 0.294131, -0.052968, -0.911666, -0.032017, -0.534063, 0.343720, -0.112727, 0.119830, 0.178961, 0.327638, 0.678619, -0.468769, 0.413623, 0.499317, 0.054480, 0.576698, -0.210703, 0.169146, -0.228878, 0.862012, -0.368271, 0.005578, 0.280750, 0.205002, -0.136909, 0.191646, 0.126890, 0.099258, -0.490270, 0.703619, -0.025986, -0.136189, 0.578498, -0.110185, 0.481707, -0.076093, -0.443273, 0.501519, 0.608911, -0.086617, 0.263725, 0.699608, -0.361265, -0.291602, 0.716422, 0.415483, -0.593121, 0.607355, 0.075429, 0.612784, -0.497987, -0.011658, -0.861266, 0.450256, -0.000854, -0.025241, -0.485101, 0.072173, -0.311283, 0.546179, -0.304723, -0.223093, 0.205745, -0.032212, 0.190636, 0.219471, 0.500821, -0.849384, 0.383830, -0.301790, 0.236554, 0.639347, -0.955003, -0.202439, 0.906630, 0.235793, -0.018657, -0.701495, 0.600815, 0.382656, 0.136840, 0.110982, -0.901515, -0.350779, 0.218299, -0.683209, -0.090981, -0.477240, 0.420199, -0.116110, -0.478909, -0.270143, 0.008893, -0.357082, -0.190399, -0.584018, 0.154621, 0.433222, -0.065673, 0.291224, -0.598214, 0.231179, -0.050066, 0.130015, -0.258937, 0.177092, -0.127856, 0.153361, 0.231718, -0.270628, -0.585362, -0.746479, -0.162883, -0.013553, -0.455209, 0.179147, -0.130081, -0.031216, 0.653908, -0.321602, -0.382416, -0.498560, -0.559625, -0.182245, 0.305484, -0.279434, 0.214222, -1.049868, 0.155946, -0.121969, -0.505699, 0.635478, -0.200811, 0.123815, -0.302325, 0.149849, -0.743885, 0.176323, -0.190550, 0.054324, 0.187332, 0.512659, -0.105740, 0.020980, -0.288077, -0.101779, -0.524920, 0.366988, -0.094442, 0.017669, -0.595292, 0.099072, -0.183507, 0.079734, 0.015991, 0.297019, -0.846490, 0.210840, -0.280360, 0.235627, -0.665686, 0.663838, -0.337084, 0.714093, -0.212604, 0.091747, -0.124624, 0.346888, 0.077432, -0.281214, -0.179563, 0.662082, -0.622568, 0.361112, -0.236702, 0.220000, -0.629387, 0.319000, -0.259856, -0.044424, -0.177089, 0.474519, -0.422835, 0.126999, -0.235635, 0.265641, -0.638406, 0.453065, -0.428245, 0.106523, -0.248924, 0.512050, -0.689937, 0.342442, -0.181785, 0.405357, -0.439703, 0.008490, -0.342695, -0.180932, -0.086862, 0.484353, -0.132193, 0.238578, -0.016081, 0.267122, -0.117295, 0.455735, -0.240221, -0.029667, -0.367687, 0.628054, -0.563315, 0.269874, -0.243231, 0.449833, -0.151328, 0.305481, 0.032119, -0.184269, -0.206690, 0.749924, -0.503598, 0.339770, 0.003175, -0.089135, -0.308559, 0.668830, -0.172491, -0.157548, -0.147692, 0.601623, -0.601375, 0.107270, -0.098839, 0.213638, -0.524081, 0.001790, -0.064121, 0.392676, -0.133874, 0.654865, -0.172300, -0.008259, 0.022787, 0.156399, -0.323255, -0.056115, -0.119694, 0.281333, -0.379994, 1.058671, -0.306449, 0.115005, 0.109287, -0.260711, -0.545408, 0.315326, -0.200767, 0.287079, 0.004894, 0.501274, -0.583585, 0.174124, -0.221733, 0.356046, -0.627010, 0.269305, -0.168581, 0.244980, -0.103012, 0.751180, -0.189436, 0.474914, -0.411917, 0.264693, -0.310656, 0.274698, -0.162559, 0.488172, -0.321707, 0.945843, -0.516251, 0.179213, -0.439541, 0.123277, -0.405097, 0.139290, -0.168839, 0.252649, 0.053967, 0.879422, -0.341082, 0.614606, -0.307305, 0.268103, -0.389184, 0.024020, -0.186995, -0.069702, -0.145681, 0.277830, -0.266865, -0.546785, 0.872527, 0.286755, -0.084938, 0.073131, -0.418836, -0.017898, 0.249820, -0.101577, -0.491901, 0.673798, 0.129295, 0.074044, 0.481467, -1.004896, -0.213919, -0.384686, -0.242786, 0.417131, -0.163382, 0.151494, -0.077405, 0.140884, -0.444779, 0.400339, -0.012809, 0.354900, 0.324319, -0.419290, 0.407696, 0.524731, -0.388248, -0.020332, 0.279426, 0.797447, 0.006520, 0.571437, -0.444215, 0.906066, 0.216176, 0.809449, -0.053593, 0.004734, 0.062899, -0.061569, -0.054073, 0.103858, -0.632284, 0.153256, -0.533554, 0.033718, 0.255959, 0.476833, -0.066359, 0.177288, 0.663240, 0.144298, -0.282980, -0.495291, -0.830913, -0.222344, 0.643550, 0.652668, -0.309896, -0.208187, 0.234665, 0.524694, 0.105436, -0.267189, 0.867008, -0.296667, 0.093529, 0.569705, -0.164272, 0.138608, 0.641338, 0.182394, -0.485923, 0.549119, 0.483735, -0.582804, 0.440331, 0.393719, -0.438057, 0.042752, 0.727567, 0.183535, -0.376115, 0.801504, 0.022885, -0.389815, -0.669640, 0.120705, -0.164475, 0.142421, 0.023011, -0.427370, -0.081074, 0.009944, 0.151735, -0.271563, -0.586194, 0.304959, -0.285170, 0.126898, -0.367210, -0.620150, -0.195949, -0.039507, 0.099921, -0.512055, -0.410796, 0.291217, -0.274030, 0.149142, -0.155157, -0.458041, -0.088224, -0.151467, 0.118835, -0.678284, -0.295513, 0.279193, -0.346393, 0.115232, -0.056205, -0.366085, -0.110430, -0.082109, 0.183423, -0.269299, -0.593594, 0.387061, -0.267194, 0.040847, 0.078218, -0.330133, 0.127247, -0.093415, 0.152745, -0.275739, -0.355976, 0.321778, -0.242704, 0.309709, -0.195639, -0.445632, 0.035532, -0.118425, 0.041089, -0.518415, -0.513672, 0.305300, -0.300824, 0.168741, -0.057874, -0.345531, -0.035549, -0.118422, 0.012241, -0.687918, -0.558715, 0.574502, -0.237453, 0.259610, 0.045849, -0.115886, -0.048702, 0.342683, 0.109091, -0.653259, -0.435969, 0.417260, -0.258822, 0.256953, 0.010532, -0.287118, 0.019107, 0.111938, 0.018983, -0.609556, -0.355953, 0.297680, -0.177405, 0.489951, 0.096055, -0.099883, 0.037009, 0.157321, 0.081552, -0.504963, -0.256455, 0.488093, -0.244735, 0.241110, -0.186170, -0.082883, -0.483639, -0.049579, 0.106020, -0.691907, -0.380634, 0.324976, -0.178901, 0.363819, -0.139322, -0.071446, -0.190922, -0.191869, 0.104159, -0.365423, -0.422711, 0.323875, -0.160827, 0.256789, -0.270007, -0.345727, -0.013632, -0.113155, -0.018887, -0.444682, -0.503979, 0.368074, 0.001485, 0.463611, -0.408842, -0.117600, -0.232071, -0.194393, -0.333044, -0.121906, -0.216303, -0.036865, -0.183391, -0.226571, 0.672642, -0.423134, -0.341886, 0.040096, -0.227570, 0.111427, -0.377271, -0.251867, 0.014207, -0.724037, 0.853193, 0.344584, -0.372633, 0.632080, -0.086643, 0.527546, 0.244634, -0.239579, 0.473422, -0.074214, 0.395705, 0.073618, -0.917924, 0.245252, -0.390678, 0.314974, -0.167400, -0.277489, 0.141909, 0.022295, 0.577980, -0.052801, 0.118852, -0.094590, -0.108802, 0.056237, -0.063101, 0.141338, 0.328479, 0.061926, 0.540114, 0.026584, 0.494487, 0.195312, -0.188115, -0.175316, -0.199315, -0.445150, 0.325474, 0.100167, 0.770100, 0.230943, 0.322037, 0.343911, -0.353630, 0.298068, -0.518167, -0.175289, 0.155026, -0.258040, 0.545735, 0.322717, 0.646809, -0.274277, -0.025788, 0.256565, -0.136484, 0.132569, 0.767145, 0.044535, 0.737862, -0.329493, 0.370621, -0.109762, 0.006747, 0.197907, -0.244867, -0.335510, 0.268193, -0.394894, 1.080674, 0.105364, 0.427855, 0.250144, -0.326952, -0.255474, 0.176749, 0.100807, -0.269406, 0.250681, 0.481282, -0.344437, 0.252812, -0.371027, 0.370487, 0.390719, -0.757019, -0.504306, -0.262402, 0.274007, 0.815902, 0.310913, -0.100134, 0.496688, -0.161985, 0.412490, -0.484913, -0.051927, 0.724506, -0.132721, 0.189700, -0.384207, 0.146491, 0.405409, -0.040246, 0.316887, -0.610457, -0.233922, -0.391898, 0.074810, 0.742606, -0.270917, 0.152993, 0.346236, -0.113856, 0.322423, -0.478849, -0.201403, -0.455952, 0.183327, 1.014899, -0.017199, 0.207392, -0.365527, 0.478881, 0.133785, -0.202361, -0.231902, 0.115580, -0.169914, 1.058941, -0.017805, 0.290664, 0.578819, 0.292238, -0.020807, -0.211003, -0.129971, -0.042284, -0.121658, -0.081511, 0.086941, -0.018545, -0.313912, -0.113666, 0.098274, -0.205401, -0.342978, -0.349789, -0.168252, -0.196996, 0.080152, 0.021248, -0.081217, 0.004618, 0.023921, -0.250600, -0.229059, -0.309240, -0.222473, -0.337539, 0.164394, 0.059519, -0.093427, 0.252550, 0.134441, -0.320177, -0.271240, -0.120304, -0.367341, -0.165806, 0.134792, 0.098941, -0.127817, 0.290377, -0.191102, -0.453353, -0.020434, -0.161195, -0.241274, -0.280662, 0.265471, 0.084782, -0.122927, 0.091806, -0.228524, -0.221806, -0.032382, 0.044136, -0.258141, -0.124513, 0.242133, -0.130704, -0.185192, -0.382001, -0.200713, -0.353591, 0.167877, 0.040813, -0.543743, 0.217021, 0.029005, -0.098769, 0.087433, -0.380139, -0.073195, -0.277587, 0.170426, -0.326006, -0.314702, 0.358590, 0.348775, -0.283526, -0.340938, 0.112548, 0.127728, 0.459035, 0.217674, -0.167433, -0.249730, -0.151979, 0.230771, -0.197452, -0.225911, -0.185807, 0.060808, -0.005804, -0.170864, 0.263430, 0.437030, 0.208113, -0.143599, -0.417686, 0.439760, -0.387467, -0.131054, -0.046827, 0.023170, -0.425489, -0.376825, 0.405078, 0.352208, -0.456902, -0.112711, 0.144917, -0.503190, -0.415953, 0.226156, -0.144595, 0.430499, 0.093494, -0.099014, -0.270909, 0.070999, -0.213869, 0.010132, 0.254594, -0.524754, 0.152732, -0.052405, 0.848921, -0.180870, -0.335715, 0.050750, -0.342837, 0.173212, 0.129215, -0.755960, 0.223350, 0.148705, 0.096708, -0.234875, -0.611661, 0.150260, 0.235817, 0.060005, -0.008336, -0.127853, 0.163878, 0.499631, 0.701809, -0.047963, -0.393709, 0.002219, 0.301921, -0.317020, 0.454178, -0.006785, 0.019130, 0.222419, 0.637121, -0.295893, -0.646921, -0.442954, 0.174938, -0.363394, 0.140275, 0.140183, 0.172248, -0.054679, 0.585515, -0.499704, -0.490865, 0.214491, 0.009373, -0.116599, 0.270911, -0.376415, 0.206979, 0.229826, 0.912221, -0.327121, -0.786706, -0.110235, -0.016332, -0.366304, -0.242857, -0.289485, 0.182315, -0.047419, 0.193389, -0.487733, -0.437505, -0.098903, 0.261703, -0.011353, 0.184308, -0.461605, 0.005423, -0.058441, 0.416181, -0.262201, -0.470716, -0.362914, 0.103945, 0.002843, 0.145749, -0.242980, 0.040550, 0.040084, 0.667173, -0.112750, -0.528145, 0.011208, -0.123755, -0.190341, 0.414266, -0.451327, 0.284643, 0.050078, 0.691677, -0.046784, 0.170064, 0.070125, -0.100843, -0.047817, 0.030498, -0.281768, 0.293218, 0.192093, 0.347224, -0.237862, -0.787757, -0.141934, -0.335388, -0.019901, 0.268203, -0.062755, 0.399900, 0.491115, 0.003004, -0.126391, -0.839048, -0.292744, -0.029994, -0.091760, 0.095324, -0.070765, 0.187477, 0.439725, -0.010973, -0.178042, -0.522698, -0.181941, -0.008173, 0.024507, 0.189728, 0.031328, 0.364708, 0.123543, 0.466952, -0.054677, -0.830943, 0.080978, 0.265833, -0.066120, 0.397122, 0.016319, 0.308788, 0.400808, 0.161360, 0.005977, -0.509340, 0.467287, 0.001193, -0.450931, 0.357476, 0.132439, 0.195611, 0.239640, 0.411791, -0.234634, -0.714478, 0.416519, -0.213276, -0.048342, 0.191918, 0.314700, -0.448334, -0.105503, 0.120056, -0.310732, 0.246388, -0.200641, 0.147332, 0.086067, 0.219220, 0.220066, -0.440833, -0.616061, -0.134980, -0.516208, 0.504583, 0.201246, -0.716721, -0.170678, -0.427647, 0.380285, 0.260935, -0.298249, 0.138025, 0.147504, 0.318564, 0.464637, 0.012968, 0.428634, -0.218825, 0.349096, -0.040238, -0.080039, 0.278846, 0.305011, 0.018934, 0.336703, -0.028720, 0.113120, -0.031958, -0.081791, 0.482053, 0.017168, -0.020566, -0.765589, -0.559249, -0.464727, 0.524795, 0.441058, 0.225045, 0.421737, -0.147394, 0.260931, -0.185777, -0.368995, -0.408610, -0.260708, -0.296110, 0.259311, -0.000030, 0.167231, -0.319205, -0.309045, 0.265138, -0.379411, 0.104385, -0.362390, -0.301753, 0.252401, -0.130250, 0.353349, -0.644376, 0.325100, -0.551796, -0.856679, -0.211558, -0.234823, -0.700446, -0.390922, 0.336219, 0.407528, -0.633835, 0.564109, 0.461874, 0.221036, -0.208236, -0.129700, -0.388417, 0.325141, -0.024280, -0.038226, 0.176152, 0.027887, -0.068985, -0.399120, -0.079626, 0.070197, -0.102060, -0.327735, -0.030114, 0.076986, 0.633477, 0.122528, 0.528522, -0.245915, -0.505494, -0.017685, 0.110722, -0.268593, -0.327088, 0.078087, 0.269130, 0.096350, 0.256151, -0.200766, -0.342293, -0.007311, -0.222628, 0.045609, -0.064073, 0.166880, 0.297755, 0.327774, 0.507681, -0.023760, -0.099525, 0.112693, 0.076330, 0.171080, -0.071070, -0.200949, -0.097049, -0.000687, 0.305263, -0.151945, -0.189153, 0.231650, -0.788482, -0.033507, 0.198524, 0.259012, -0.334819, 0.215735, 0.342801, 0.273240, -0.193031, -0.438352, 0.141054, 0.064700, 0.381241, -0.067526, -0.235711, -0.048894, 0.340226, 0.337020, -0.153256, 0.320036, -0.287148, -0.952901, 0.367061, 0.280182, -0.224433, -0.263285, 0.741218, -0.085133, -0.171189, 0.430209, -0.264543, 0.356654, 0.068286, 0.047287, -0.692403, 0.210097, -0.184413, 0.274958, 0.215638, 0.240669, -0.479862, 0.153597, 0.466658, 0.608296, 0.178026, 0.060574, -0.172112, 0.028937, -0.057613, 0.368102, -0.213837, -0.349719, 0.448911, 0.341736, -0.555039, -0.166645, 0.055390, 0.639356, -0.348818, -0.523476, -0.307804, -0.038145, 0.199625, 0.467685, -0.218312, 0.131338, 0.047014, 0.250398, -0.035711, 0.111647, -0.020655, -0.168864, 0.277658, -0.256334, -0.093725, -0.054498, -0.028603, -0.125786, 0.045259, 0.317857, -0.018933, -0.425903, -0.201054, -0.184104, -0.498576, -0.188713, 0.527699, -0.099197, -0.597230, -0.079445, -0.265250, -0.144305, -0.350764, 0.095893, 0.118310, -0.196203, 0.482826, 0.485618, -0.462950, 0.510700, -0.356154, 0.177522, 0.315207, 0.353574, -0.363876, -0.171903, 0.270502, 0.289314, -0.265993, -0.274602, -0.025890, 0.231002, 0.054106, 0.259161, 0.145656, 0.350957, 0.064778, -0.183890, -0.139123, -0.211055, -0.372187, 0.093992, -0.182904, 0.149987, 0.090707, 0.163156, 0.188674, 0.158568, -0.463667, -0.323461, 0.156181, 0.381100, -0.182310, 0.174993, -0.729738, 0.271786, 0.140630, -0.537509, -0.719332, -0.166971, 0.316646, 0.106335, -0.023908, 0.324427, 0.140392, 0.463376, 0.025862, 0.020234, -0.391513, 0.244523, -0.229237, 0.476297, 0.822252, 0.475409, 0.182755, 0.674575, -0.365202, -0.114271, 0.179702, 0.436967, -0.271189, -0.307786, 0.056970, 0.189610, 0.297705, 0.497186, 0.055954, -0.469392, 0.286564, -0.199243, 0.030978, 0.080488, 0.601018, 1.045273, 0.277674, 0.265853, -0.372332, -0.390926, 0.316638, 0.661421, -0.318522, 0.209582, -0.277786, 0.635647, -0.038844, 0.369274, 0.404812, -0.074289, -0.031687, 0.417611, 0.575578, -0.205397, 0.342151, 0.225538, 0.731691, 0.458974, -0.448616, -0.551849, -0.159309, 0.103121, -0.324652, 0.227363, 0.164205, 0.968763, 0.130811, 0.008312, -0.195020, -0.524992, 0.215759, 0.207271, -0.419942, -0.279108, 0.482002, -0.023455, -0.228746, -0.151924, -0.005466, -0.124918, -0.018821, 0.275312, -0.551472, 0.439988, -0.116260, 0.064818, 0.459954, 0.034001, 0.007332, -0.210986, 0.245229, 0.102223, -0.167210, 0.063472, 0.061990, 0.367561, 0.542656, 0.108683, 0.266368, -0.471353, -0.504577, -0.472669, 0.399773, 0.158864, -0.144611, 0.527321, 0.263965, 0.535334, 0.167962, -0.268136, 0.142972, -0.383819, -0.115049, 0.163780, 0.339535, 0.636012, 0.535643, -0.240029, -0.019892, -0.166408, -0.423621, 0.068488, -0.012613, 0.057044, 0.453489, 0.789337, 0.214502, -0.093580, 0.267059, -0.561315, -0.188844, 0.113328, -0.225049, 0.232275, 0.242880, 0.410662, 0.488735, 0.453264, 0.366583, 0.221917, 0.026543, -0.127972, 0.371046, -0.075268, 0.197026, 0.546704, 0.681545, 0.742660, 0.024660, -0.474605, -0.223481, 0.201162, 0.352635, 0.098306, 0.411629, 0.919003, 0.697395, 0.618977, -0.006176, -0.475860, -0.016057, 0.107977, -0.040347, -0.405151, 0.321985, 0.432896, 0.739481, 0.677827, -0.148134, -0.260333, 0.621733, 0.202002, -0.463240, -0.378774, 0.571885, 0.390894, 0.514081, -0.090117, -0.183494, -0.554724, -0.158571, -0.238982, -0.025336, -0.093247, 0.722811, 0.501589, 0.614690, 0.416349, -0.011559, -0.103664, 0.030051, 0.114181, -0.245581, -0.101742, 0.263446, 0.604311, 0.666538, 0.499934, -0.093507, -0.102229, 0.123215, 0.288941, 0.210094, -0.278038, 0.652393, 0.476904, 0.018182, 0.418285, -0.481163, -0.085401, -0.308998, -0.220594, 0.013207, -0.073193, 0.347018, 0.945433, 0.909866, 0.501983, 0.041861, -0.388809, 0.224561, -0.411624, -0.451359, -0.014670, 0.528881, 0.480504, 0.533641, 0.421594, 0.260553, -0.323720, 0.131727, -0.349777, -0.264150, 0.754324, -0.196195, 0.787174, 0.783897, 0.220287, 0.194531, -0.267653, -0.170144, 0.286243, -0.048576, 0.670684, -0.585942, 0.647780, 0.541429, 0.407448, 0.094498, -0.009423, 0.081241, 0.205643, 0.118770, 0.560656, -0.137390, 1.040108, 0.772585, 0.031517, 0.406642, -0.306494, -0.380899, 0.021520, -0.162282, 0.824823, -0.177964, 0.584816, 0.738958, 0.051834, 0.346324, -0.500892, -0.184157, 0.017467, 0.098303, 0.779890, 0.206088, 0.318968, 0.437660, 0.172007, -0.122531, -0.356631, -0.341465, -0.063556, -0.467379, 0.606233, 0.142729, 0.282066, 0.784307, -0.033131, 0.284415, -0.213570, -0.254548, 0.393872, 0.047348, -0.115965, -0.219896, 0.674832, 0.523976, 0.668984, 0.093819, 0.005166, -0.054439, 0.124255, -0.525890, -0.273765, 0.369543, 0.773015, 0.673784, 0.501844, 0.327870, -0.086702, 0.323906, -0.360380, -0.094311, -0.305676, 0.014161, 0.866008, 0.488409, -0.249649, -0.397919, 0.279865, -0.065454, -0.047840, -0.233755, -0.173967, 0.014064, 0.347122, 0.795063, 0.748317, 0.239571, -0.013924, 0.421780, 0.180321, -0.067271, -0.262658, 0.001035, 0.566609, 0.650223, 0.987833, 0.318175, 0.042335, 0.249843, 0.198865, -0.132939, -0.241239, -0.197824, 0.747387, 0.449153, 0.099061, 0.284153, 0.026838, 0.147776, 0.250116, -0.261764, 0.065093, -0.062520, 0.802017, 0.639474, 1.037458, 0.060379, -0.037221, -0.063752, 0.131522, -0.309883, 0.184413, 0.180215, 0.383084, -0.260023, 0.787557, 0.260920, 0.077286, 0.556781, 0.570043, -0.392692, -0.092545, -0.109986, 0.903543, 0.503197, 0.641917, 0.097076, -0.291784, 0.171735, -0.040854, -0.327684, -0.085401, -0.253912, 0.510853, 0.742354, 0.163016, 0.421064, 0.628659, 0.041069, -0.079067, -0.280840, 0.168457, 0.007506, 0.755500, 0.344752, 0.697444, -0.101281, 0.065473, 0.428117, -0.288331, -0.384457, 0.376399, 0.162162, 0.898844, 0.040183, 0.997545, 0.031170, 0.288859, 0.533405, 0.202500, -0.460238, 0.342141, 0.088979, 0.933184, 0.439299, 0.814747, -0.294650, 0.047653, -0.029774, 0.111574, -0.357720, 0.882547, -0.191350, 0.481948, -0.261073, 0.521042, -0.193014, -0.420231, -0.163841, -0.222739, -0.690755, 0.953868, 0.534229, -0.737852, -0.239437, 0.398960, 0.284358, -0.436376, 0.104725, -0.191836, -0.718183, 0.820127, 0.735793, -0.207640, 0.006155, 0.057008, 0.021600, -0.137063, -0.174609, 0.100705, -0.072209, 0.773256, 0.232936, 0.434463, 0.160186, 0.463640, -0.584476, -0.270032, -0.284120, -0.078396, -0.183866, -0.321459, 0.115726, 0.972131, 0.499021, 0.055940, 0.110473, 0.249415, -0.195720, 0.111514, -0.253119, -0.310373, -0.198265, -0.010690, 0.372289, -0.113128, -0.045622, 0.749427, -0.544045, 0.449557, 0.139783, 0.251657, 0.374857, 0.551964, -0.261867, -0.252848, -0.666348, -0.256492, 0.035453, 0.287987, -0.779765, 0.108032, -0.110146, 0.754787, 0.569774, 0.116583, -0.475513, -0.250385, -0.058581, -0.100237, -0.217208, 0.229061, -0.252107, 0.688414, 0.357365, -0.088297, -0.496895, -0.126824, -0.274251, 0.066426, -0.250083, 0.024854, 0.044444, 0.236041, 0.452362, -0.117738, 0.346168, 0.449382, -0.057951, 0.408710, 0.008684, -0.040593, 0.531885, 0.631121, 0.103839, -0.346353, -0.024776, 0.749719, -0.018892, 0.614805, -0.586728, -0.320980, 0.465406, 0.739889, 0.350106, 0.046503, 0.006531, 0.330411, 0.306400, -0.159801, -0.138253, 0.341252, 0.252324, 0.495129, -0.180015, -0.375414, -0.110649, 0.438531, 0.276244, 0.366489, -0.266605, 0.038711, 0.227137, 0.175365, -0.274238, -0.674640, 0.168894, 0.062671, -0.651852, 1.113405, -0.329781, 0.147313, 0.442480, 0.409478, -0.292012, -0.183015, -0.345768, 0.515314, -0.081174, 0.276650, -0.709877, 0.286516, 0.360828, 0.692748, -0.023098, -0.376217, 0.925078, 0.522609, 0.368036, -0.241392, -0.520463, 0.103045, 0.322889, 0.081438, 0.733597, -0.443173, -0.282785, 0.363305, 0.260721, 0.505579, 0.306199, -0.241724, -0.040962, -0.250853, -0.148949, 0.457233, -0.082938, -0.301763, -0.508858, 0.611275, 0.138396, 0.149072, -0.091153, 0.501716, 0.572075, 0.009013, -0.209263, -0.209555, -0.266765, 0.293851, 0.178926, 0.939392, -0.234913, -0.112568, 0.468803, 0.314932, -0.639781, -0.220178, -0.441781, 0.351972, 0.074774, 0.609432, -0.061105, -0.094975, 0.548570, 0.252831, -0.497399, 0.023167, -0.307198, 0.343891, -0.072407, 0.613240, -0.567678, 0.150568, 0.437535, -0.903746, -0.346910, -0.515537, -0.247652, 0.170320, -0.525124, 0.840478, 0.096440, -0.288748, 0.037548, -0.037757, 0.109901, -0.157850, 0.010551, 0.043640, -0.264968, 0.788366, -0.194141, 0.496499, 0.569244, -0.481101, -0.197727, -0.257079, 0.251793, -0.163428, -0.352187, 0.808080, 0.095507, 0.184362, 0.476857, -0.762768, -0.239787, -0.443739, -0.228003, 0.013854, -0.455693, 0.919649, 0.045878, 0.017486, 0.284960, -0.298875, -0.470346, 0.006000, 0.057190, 0.051257, 0.041053, 0.514570, 0.088736, 0.047011, 0.296541, -0.540183, -0.713185, -0.265797, 0.112567, 0.162780, -0.567681, 0.730578, 0.146318, -0.093948, 0.715325, -0.172112, -0.093164, -0.678081, -0.446330, -0.061596, -0.482796, 0.570236, 0.093913, -0.100399, 0.396426, -0.550455, -0.276105, -0.510343, -0.373807, 0.356437, -0.256830, 0.092449, 0.351009, 1.007018, 0.633960, 0.087008, -0.013068, -0.104663, -0.036779, -0.049738, 0.129525, 1.107355, 0.337060, -0.006949, -0.325813, 0.491046, -0.261851, 0.287834, -0.017892, -0.386581, -0.839670, 0.606411, -0.008180, 0.482970, 0.361353, 0.538654, -0.540211, 0.329084, 0.021744, -0.021007, -0.659126, 0.478280, 0.446888, -0.342118, -0.219611, 0.462008, 0.460485, -0.064026, 0.255045, -0.474716, -0.283299, -0.283103, -0.240513, 0.191948, -0.124895, -0.467120, -0.130924, 0.553087, -0.297191, 0.048938, -0.122644, 0.254073, 0.133184, 0.831411, 0.622473, 0.238450, -0.165144, 0.448981, -0.167480, -0.192567, -0.529942, 0.292847, -0.264099, 0.632078, 0.329093, 0.131702, -0.538892, 0.026001, 0.056697, 0.356277, -0.095953, -0.301386, 0.148277, 0.498251, 0.102861, 0.299876, 0.379061, 0.147256, -0.328973, 0.990995, -0.126788, -0.260689, 0.065835, 0.693687, 0.678474, -0.134799, -0.089375, 0.291826, -0.227056, 0.230358, -0.410538, -0.483405, 0.618143, 0.267163, 0.316240, -0.250542, -0.319878, 0.572666, -0.212690, 0.480316, -0.310537, -0.282263, 0.468925, 0.564774, 0.641315, -0.027764, -0.148500, 0.187771, -0.444234, 0.377792, -0.411022, -0.619724, 0.321997, 0.506546, 0.500564, 0.355680, 0.249135, 0.467368, -0.043462, 0.323371, -0.439023, -0.040152, 0.315822, 0.184945, 0.825030, -0.130737, -0.174005, -0.177647, -0.435535, 0.418885, -0.287332, 0.013845, 0.273893, 0.443172, 0.809795, 0.303169, 0.288859, 0.132094, 0.104098, 0.647188, -0.609869, -0.072133, 0.000940, 0.590402, 0.515302, 0.173971, -0.265987, 0.109018, -0.109882, 0.112282, -0.628444, -0.051920, 0.204435, 0.458944, 0.036183, -0.003603, 0.130797, -0.277584, 0.309332, 0.644911, -0.158612, -0.126496, 0.217061, 0.500381, 0.228453, 0.043964, -0.124258, -0.420915, 0.451122, 0.636319, 0.005861, -0.412252, 0.380261, 0.714205, 0.254928, -0.065314, -0.291430, -0.480307, 0.654751, 0.754691, -0.488286, -0.025789, 0.227968, 0.632515, -0.103607, 0.046098, -0.103481, -0.117230, 0.291156, 0.714297, -0.365140, 0.191641, 0.110627, 0.272991, 0.236675, -0.093240, -0.045603, -0.173426, 0.413050, 1.002081, -0.416620, 0.267820, 0.139152, 0.186025, 0.344183, -0.218291, -0.079570, -0.342412, 0.211350, 0.788809, -0.369204, -0.017939, -0.302326, 0.512635, -0.076022, 0.000698, 0.218312, -0.138313, 0.388970, 0.765921, -0.310450, -0.127240, -0.152723, 0.519445, -0.073415, -0.127107, 0.111402, -0.300680, 0.472191, 0.834171, -0.399800, -0.022827, -0.325722, 0.544788, -0.031104, -0.075006, 0.076346, -0.244115, 0.469803, 0.733303, 0.046624, -0.459846, 0.080555, 0.097412, 0.003083, -0.221116, 0.216944, 0.104180, 0.217630, 0.558036, 0.022789, -0.477002, -0.073738, -0.301667, 0.218003, -0.146592, -0.263775, 0.355398, 0.632049, -0.011724, -0.145442, -0.515530, 0.321347, -0.489085, 0.136733, -0.206953, -0.109020, 0.321880, 0.681881, 0.223184, -0.229570, -0.070619, 0.029637, 0.110375, 0.476082, 0.034823, -0.407464, 0.328885, 0.057481, 0.054532, 0.025402, 0.147617, -0.144343, -0.084156, 0.408229, 0.010312, -0.216599, 0.110147, 0.295051, 0.018534, -0.154380, 0.120405, -0.134636, -0.113572, 0.176093, 0.033276, -0.438737, 0.069595, 0.252781, 0.104769, -0.227574, -0.091045, -0.019374, -0.080921, 0.126248, -0.206315, -0.242249, -0.003049, 0.211165, -0.028183, -0.517637, 0.254554, 0.230200, 0.596293, 0.349313, 0.049174, -0.039296, -0.088746, -0.059950, 0.250193, -0.269650, -0.102685, 0.132608, 0.599884, 0.443380, 0.154566, 0.050085, -0.095666, 0.063349, 0.298400, -0.072341, -0.022147, -0.038881, 0.056307, 0.474409, -0.159142, -0.182135, 0.147694, 0.164076, -0.076628, 0.120714, -0.295407, 0.139699, -0.215556, 0.203774, -0.136794, -0.034912, 0.239268, 0.661287, 0.191513, 0.067093, -0.108637, -0.149494, 0.019055, 0.425940, 0.064136, -0.231446, 0.222886, 0.368792, 0.082690, -0.192622, -0.114242, 0.153919, -0.119640, 0.096960, 0.250062, -0.180653, 0.027316, 0.115835, 0.048704, -0.142096, 0.164778, 0.115919, 0.116682, 0.335120, 0.181493, -0.557901, 0.468220, 0.121130, 0.053137, -0.068609, 0.013755, -0.062493, 0.038516, 0.150491, 0.194902, -0.383111, 0.378143, 0.249178, -0.004129, 0.434980, 0.218529, 0.341612, -0.025587, 0.665568, 0.085219, 0.255678, -0.196968, -0.324170, -0.268762, -0.098479, -0.072733, 0.244539, -0.050202, 0.146494, 0.152639, 0.425842, -0.094953, -0.587076, -0.161393, -0.133781, -0.342442, 0.652890, -0.038516, 0.184515, 0.496093, 0.268718, -0.178418, -0.512049, 0.005432, -0.008690, -0.071880, 0.488750, 0.001866, -0.205637, -0.001660, 0.057096, 0.166281, -0.708739, 0.152996, 0.137932, 0.298085, 0.735226, -0.167069, 0.353971, -0.005036, 0.494964, 0.692231, -0.507131, -0.231106, 0.070050, 0.476297, 0.456693, -0.169261, 0.114996, 0.208954, 0.314085, 0.517909, -0.421137, -0.084155, -0.021935, 0.275812, 0.654580, -0.282802, 0.384237, 0.167506, 0.371193, 0.440380, -0.508984, -0.049419, -0.125154, 0.188226, 0.379112, -0.282546, 0.206412, 0.353365, 0.342637, 0.278284, -0.193592, -0.014828, 0.423131, -0.106401, -0.364674, 0.184809, 0.127472, 0.392837, -0.053264, -0.278770, 0.458283, 0.236086, -0.164585, -0.575599, 0.084448, 0.176810, -0.424530, 0.024580, -0.092535, -0.256787, 0.003136, 0.193953, -0.476619, -0.095942, 0.226160, 0.593225, -0.304916, 0.326178, 0.093568, 0.011960, 0.265658, 0.456109, 0.123413, -0.086986, 0.184356, -0.040909, 0.075659, 0.173208, 0.131325, -0.078333, 0.124494, 0.026899, 0.133673, 0.095353, -0.141871, 0.232513, -0.018380, 0.288275, -0.100558, -0.128686, 0.471433, 0.200034, 0.101480, -0.214883, -0.295223, 0.050852, 0.132752, 0.462914, 0.155486, -0.657683, 0.551159, 0.178667, -0.043623, 0.034445, -0.361417, 0.127071, 0.064963, 0.119201, -0.299716, -0.254449, 0.178681, 0.070654, -0.010580, -0.140937, -0.076180, -0.402868, 0.442684, 0.430392, -0.287408, 0.368194, 0.062064, -0.365668, 0.083077, -0.068533, -0.377891, 0.562525, -0.332151, -0.383047, 0.412179, 0.054932, 0.059436, -0.200738, -0.027943, -0.017389, -0.638130, -0.436719, 0.106239, -0.110511, 0.271956, 0.189899, 0.054934, 0.160755, -0.024397, -0.169892, -0.443843, 0.140081, 0.283105, 0.350787, 0.526416, -0.015839, -0.232430, 0.230816, -0.055439, 0.284308, -0.199380, -0.263091, -0.046197, -0.077111, 0.712714, 0.156141, 0.035811, 0.055877, -0.315127, -0.013841, -0.796461, 0.008913, 0.017959, 0.130091, 0.626483, -0.219004, 0.292429, -0.221915, -0.461336, 0.466373, -0.691432, -0.052066, 0.057071, -0.271678, 0.398478, -0.449266, 0.181518, -0.263038, -0.360799, 0.359598, -0.022197, -0.323845, 0.660334, -0.217102, 0.321792, 0.112769, 0.235648, 0.318023, -0.407304, 0.139416, -0.070720, -0.305403, -0.138522, 0.074160, 0.826348, -0.155596, 0.210507, -0.237279, 0.229665, -0.002811, 0.122982, -0.259538, 0.245329, 0.240275, 0.767576, -0.157426, 0.030276, -0.603668, 0.205891, -0.020543, -0.028811, 0.092748, 0.291948, -0.323174, 0.241427, -0.301626, 0.142054, 0.263189, -0.249101, -0.066441, -0.534505, -0.357695, 0.248533, -0.071020, 0.479029, 0.272770, 0.761032, -0.331281, 0.011332, -0.279075, -0.267749, -0.003512, 0.167501, 0.034763, 0.558627, 0.205227, 0.337553, 0.145557, -0.436243, 0.344807, -0.079609, -0.208937, 0.018272, -0.244044, 0.846493, -0.002547, -0.476171, -0.215852, -0.291671, 0.712648, -0.245230, -0.468164, 0.256295, 0.227256, 0.510128, -0.142329, 0.214699, 0.166734, -0.334022, 0.525067, -0.302170, -0.840064, 0.303248, 0.313030, 0.130401, 0.482339, 0.212949, 0.670745, -0.050522, 0.444610, -0.532926, -0.014765, 0.111583, -0.350874, 0.710206, 0.231411, -0.090345, 0.459319, -0.277085, 0.042968, -0.015727, -0.827204, -0.195250, 0.322242, 0.056624, -0.664693, -0.187027, 0.308537, -0.412546, 0.390524, 0.221236, 0.288827, 0.098573, -0.113301, -0.000648, -0.169751, -0.318190, -0.042291, 0.609214, -0.227513, -0.361188, 0.086227, 0.001017, 0.132917, -0.076549, 0.368149, -0.324563, -0.059761, 0.322870, 0.113729, -0.140484, 0.101344, 0.868953, -0.145896, -0.245973, 0.013930, 0.151618, 0.243110, 0.626908, 0.173403, -0.111280, 0.185000, 0.581910, -0.282465, -0.088108, -0.069966, -0.057706, 0.251016, 0.155025, 0.174062, -0.165376, 0.093810, 0.330522, 0.136791, 0.025851, -0.021507, -0.123231, 0.207215, 0.648165, -0.229453, 0.054454, 0.065113, 0.455298, 0.111941, -0.008771, 0.144414, -0.486587, 0.422560, 0.493728, -0.040904, -0.049678, -0.069806, 0.009237, -0.125603, -0.166236, 0.091509, -0.286770, 0.262880, 0.280035, -0.154598, 0.042704, -0.020184, 0.330723, 0.064454, -0.300107, 0.017662, -0.308784, 0.246366, 0.508443, -0.016832, -0.007374, 0.047324, 0.199898, -0.035897, -0.195034, -0.083272, -0.379847, 0.291605, -0.156811, -0.090657, -0.115396, -0.534320, 0.241259, 0.821801, -0.202762, 0.218894, 0.116040, -0.196684, -0.157789, -0.150869, -0.298326, -0.410822, 0.284152, 0.707196, -0.294493, 0.325394, 0.176468, -0.347582, -0.210021, 0.346970, 0.396293, -0.339441, -0.125600, 0.215421, 0.410662, -0.115196, -0.224792, 0.140087, 0.057492, 0.035966, 0.414171, 0.118337, -0.182695, -0.015184, -0.232284, -0.148846, -0.849731, 0.071286, 0.003143, 0.606408, -0.008105, 0.058630, -0.391936, 0.376214, 0.497440, -0.529893, -0.141288, -0.174254, -0.294612, 0.337414, 0.521526, 0.252289, -0.415689, 0.187576, -0.116071, -0.631893, -0.598955, 0.213501, -0.118003, -0.469696, 0.191780, -0.196337, 0.525313, 0.259222, -0.166385, 0.061400, 0.455953, -0.285822, -0.048028, -0.609458, 0.058351, -0.293856, 0.401475, 0.375512, -0.129656, -0.074419, 0.466953, -0.612378, -0.302338, -0.481112, 0.375677, -0.343813, 0.185821, 0.408448, -0.367979, 0.063540, 0.299616, -0.715615, -0.306624, -0.577005, 0.047606, -0.310124, 0.618164, 0.259669, -0.198036, 0.155715, 0.490313, -0.351605, -0.250043, -0.281856, 0.397329, -0.436025, 0.192610, 0.428329, -0.223612, 0.205367, 0.409350, -0.467776, -0.376044, -0.485700, -0.022570, 0.092876, 0.170167, 0.193190, 0.125633, 0.358335, 0.695982, -0.601779, -0.336554, -0.252339, 0.377611, -0.480990, 0.441126, 0.039469, 0.066801, 0.051296, 0.514646, -0.370788, -0.080141, -0.721372, 0.418157, 0.011614, 0.196380, 0.354014, -0.033177, 0.227317, 0.591740, -0.011769, -0.025978, -0.263400, 0.076413, -0.083567, 0.056482, 0.101702, -0.334656, 0.232574, 0.694682, -0.286274, 0.148092, 0.033833, 0.099591, -0.132568, -0.258979, 0.321302, -0.115871, 0.606868, 0.835740, -0.642762, -0.200054, -0.125403, 0.237070, 0.170153, -0.064861, 0.092638, -0.263953, 0.319203, 1.122871, -0.631172, -0.425757, 0.051401, 0.035876, -0.178319, -0.140842, 0.214749, -0.304894, 0.327281, 0.706623, -0.546456, -0.146478, 0.009898, 0.068197, 0.267798, -0.156019, 0.055706, -0.565237, 0.112733, 0.556085, -0.395066, -0.405790, 0.059167, 0.106393, -0.127298, 0.093707, 0.346777, -0.367940, 0.404062, 0.862000, -0.521622, -0.259824, -0.458655, 0.152702, -0.053318, 0.562823, 0.256494, -0.038729, 0.159706, 0.636626, -0.442250, -0.245416, -0.181522, 0.173397, -0.184510, 0.157124, 0.133017, -0.378643, 0.101012, 0.410717, -0.228858, -0.390032, -0.293615, 0.331746, -0.160767, 0.097732, 0.149438, -0.250323, 0.194112, 0.949547, -0.437091, -0.281671, -0.021556, 0.259876, -0.519785, -0.253165, 0.307647, -0.278311, -0.023699, 0.690600, -0.384085, 0.127459, -0.318713, 0.154593, -0.485470, 0.723394, 0.150035, 0.202484, -0.111411, 0.659269, -0.053402, 0.166765, -0.303027, 0.231503, -0.648119, 0.623013, 0.275620, -0.330872, -0.168318, 0.705173, -0.070705, -0.022385, -0.257715, -0.068665, -0.244054, 0.515961, 0.142366, -0.528371, -0.232013, 0.399856, -0.021615, 0.315038, -0.458984, 0.042359, -0.575430, 0.476603, 0.386166, -0.245022, -0.030008, 0.453339, -0.148440, 0.369195, -0.249696, 0.043988, -0.778174, 0.564170, 0.300802, -0.088549, 0.046419, 0.721225, -0.404186, 0.199784, -0.117030, 0.475190, -0.690551, 0.562856, -0.240621, 0.044788, -0.193007, 0.988137, -0.464300, 0.038087, -0.297758, 0.436005, -0.337663, 0.283819, -0.189850, -0.130861, -0.228226, 0.705567, -0.250845, 0.439995, -0.120309, 0.216801, -0.585025, 0.571839, -0.044803, 0.070012, -0.266909, 0.923456, -0.314391, -0.470325, -0.003376, 0.023116, 0.228728, 0.211757, -0.146825, 0.202970, -0.092970, 0.383030, 0.492406, -0.121652, -0.057759, -0.133348, 0.526097, -0.375675, 0.089300, 0.563261, 0.393429, 0.264778, 0.336536, -0.492682, 0.015584, -0.230336, 0.805516, -0.142359, -0.111316, 0.434527, 0.088767, 0.710645, 0.559212, -0.415191, 0.024040, -0.306195, 0.256463, 0.395636, -0.068288, 0.041329, -0.054578, 0.321869, 0.570927, -0.000121, -0.473611, 0.037169, -0.468698, 0.287482, -0.256005, -0.510075, -0.213149, 0.250310, 0.131594, 0.171260, -0.389912, 0.025292, -0.531170, 0.519638, -0.382064, -0.150671, -0.244017, 0.370117, 0.196542, -0.020204, -0.309680, 0.028786, -0.776789, 0.443456, 0.039350, -0.480410, 0.144983, 0.202193, 0.092876, 0.404934, -0.316729, -0.016503, -0.416872, 0.116795, -0.036638, -0.321404, 0.016660, 0.214107, -0.191974, 0.669971, -0.192186, 0.141430, -0.562416, 0.035852, 0.089549, -0.544014, -0.147867, 0.080327, 0.104365, 0.232906, -0.416368, 0.370717, -0.724477, 0.351815, 0.121291, -0.692216, -0.218966, 0.335253, 0.003457, -0.028837, -0.207738, -0.033406, -0.330754, 0.051418, -0.141865, -0.272073, -0.063331, -0.058449, 0.034414, -0.012294, 0.022510, 0.046808, -0.348039, -0.089320, 0.207642, -0.300061, 0.087919, -0.021834, 0.241282, 0.128482, -0.219052, 0.053643, -0.369305, 0.391882, 0.101596, -0.403883, -0.031573, 0.158347, 0.052238, 0.291653, -0.078923, 0.144737, -0.101389, 0.163846, -0.103633, -0.267401, 0.081916, 0.019013, 0.001601, 0.156982, 0.085069, 0.108027, -0.051333, 0.044802, 0.175654, -0.167245, 0.070402, -0.026917, 0.119596, 0.123305, -0.140384, 0.244080, -0.287040, -0.090924, -0.032893, -0.190825, -0.013941, -0.211049, 0.105606, -0.014269, 0.207853, 0.174538, -0.074735, -0.085681, -0.442514, -0.183784, -0.190116, 0.251244, 0.072357, 0.007736, -0.129067, 0.049564, -0.173044, 0.133366, 0.226068, -0.263013, 0.094585, -0.043991, 0.062537, 0.110390, -0.299775, 0.221316, -0.476960, 0.088156, -0.048542, -0.181477, -0.032529, 0.242491, 0.001464, 0.210940, 0.201632, 0.150154, -0.211236, -0.356473, -0.073079, -0.284832, -0.054784, 0.006204, -0.232412, 0.144037, -0.136708, 0.225035, -0.171361, 0.007678, -0.296357, -0.225558, -0.123774, -0.062765, -0.167053, 0.418948, 0.045050, 0.048786, -0.094025, 0.226560, 0.022480, -0.290549, -0.052625, -0.240215, 0.168122, 0.154065, 0.018742, 0.190492, -0.046630, 0.166914, -0.061842, -0.165348, 0.032047, -0.104051, -0.000518, -0.508675, -0.415481, 0.573939, 0.380853, -0.156074, 0.250537, 0.118318, 0.413684, -0.330860, 0.143604, -0.016736, 0.187284, 0.233486, -0.348296, 0.133039, -0.117961, 0.361635, -0.230131, -0.070199, 0.019780, -0.222628, 0.370954, 0.275524, 0.453672, 0.176268, 0.160828, -0.119489, -0.025499, -0.196942, -0.277236, -0.867831, 0.266253, 0.299992, 0.347666, -0.084521, -0.347794, 0.027106, 0.300393, -0.059864, -0.003348, 0.057067, 0.487211, -0.125323, -0.284837, 0.030161, 0.174978, 0.554235, -0.180690, 0.561097, -0.299833, -0.590406, 0.072421, 0.637986, -0.140921, -0.281480, 0.085415, -0.471678, 0.326105, -0.112090, -0.092104, -0.293159, 0.084125, 0.259891, -0.150972, -0.326543, 0.313662, -0.431221, 0.000454, -0.160446, -0.112543, -0.186578, 0.297852, 0.155219, -0.242830, -0.015545, 0.104384, 0.391351, -0.041707, 0.071736, -0.046597, 0.210186, 0.351749, 0.161671, -0.337270, 0.192604, 0.533969, 0.544764, 0.000156, 0.281120, 0.349967, -0.476914, -0.057055, 0.354809, 0.366108, 0.285720, 0.233448, 0.327898, -0.051052, 0.137982, 0.038512, 0.255048, 0.354043, 0.824381, 0.087551, -0.002795, 0.097316, 0.436526, -0.321041, -0.230507, -0.428940, -0.617790, -0.073007, 0.552771, 0.046978, 0.104567, -0.105758, 0.132184, 0.149500, 0.005178, 0.366137, -0.329848, 0.000583, 0.114349, -0.011799, 0.156373, 0.485479, 0.306757, -0.135460, 0.116406, 0.074904, -0.257127, 0.400874, 0.595087, 0.225637, -0.202327, -0.289890, 0.509206, 0.032288, 0.185657, -0.448890, -0.078773, 0.305206, 0.219121, 0.254979, -0.232128, -0.246883, 0.314611, 0.129986, -0.067748, 0.197402, 0.319203, 0.117377, 0.218206, -0.102510, -0.179238, -0.083868, -0.213591, -0.213371, 0.067680, -0.007016, -0.691532, 0.355351, 0.652222, 0.275557, -0.151156, 0.153852, -0.104261, -0.128182, 0.061536, -0.354235, 0.053765, 0.367020, 0.008743, 1.116881, 0.231269, 0.003392, 0.199557, 0.619076, -0.041099, -0.316854, -0.087002, 0.223691, 0.604461, 0.282623, 0.041123, -0.150864, -0.224926, 0.038104, 0.329905, -0.807367, 0.402803, -0.251915, -0.311386, 0.038980, -0.167182, 0.315034, 0.042083, 0.287004, -0.225983, -0.106838, 0.193151, -0.208047, -0.260401, -0.024039, 0.171870, 0.180273, -0.139639, -0.081143, -0.104073, -0.370104, 0.033060, -0.206748, -0.232179, -0.009876, 0.094985, -0.098107, -0.213443, 0.351046, 0.034051, -0.425223, 0.093205, 0.147340, -0.242403, 0.030764, 0.625875, 0.187361, -0.065909, 0.546194, 0.123964, -0.717729, 0.188650, 0.193367, -0.527288, 0.107992, 0.715606, 0.155197, -0.096004, 0.665197, 0.146326, -0.673809, -0.120583, 0.075706, -0.297372, -0.007057, 0.155571, 0.162215, -0.165806, 0.157827, 0.053971, -0.543028, 0.256048, 0.037622, -0.359752, 0.010341, 0.020608, -0.443096, 0.026356, 0.301248, 0.132200, -0.523842, -0.122680, 0.230045, -0.566432, 0.190101, 0.072481, -0.812178, -0.034773, 0.202294, 0.166879, -0.293574, 0.107838, 0.087734, 0.429871, 0.897925, -0.116268, -0.383611, -0.266806, -0.589064, 0.382753, 0.080488, -0.075047, -0.102135, 0.561359, 0.480177, -0.248576, 0.367356, -0.746987, 0.225877, -0.161253, -0.429013, -0.046519, 0.292232, 0.592485, -0.390947, -0.062801, -0.182221, 0.056735, -0.855372, 0.468307, -0.327205, 0.357410, -0.099957, 0.810240, 0.792599, -0.246553, -0.026637, -0.585319, -0.243029, -0.209265, -0.401941, -0.030703, 0.061286, 0.256199, 0.178580, -0.239887, -0.572713, -0.047145, -0.747624, 0.401393, -0.177963, -0.244682, 0.242516, 0.280204, 0.132687, -0.202734, -0.229488, -0.103413, -0.988271, 0.269239, 0.080846, 0.520619, -0.130650, 0.485584, 0.221154, -0.679905, 0.075526, -0.110840, -0.161316, -0.151708, -0.059679, 0.642726, -0.580883, 0.490059, 0.458358, -0.616232, -0.092024, -0.174013, -0.330479, -0.120451, -0.188410, 0.398653, -0.386879, 0.506315, 0.407041, -0.717445, -0.118147, -0.218126, -0.346309, -0.127931, 0.180458, 0.808133, -0.488667, 0.498596, 0.634048, -0.703635, -0.140670, -0.108424, -0.276730, -0.255536, -0.207921, 0.621445, -0.223133, 0.477343, 0.634596, -0.565748, -0.351358, 0.361173, 0.074379, -0.332566, -0.495216, 0.572128, -0.445470, 0.551859, 0.701648, -0.705354, -0.204602, 0.112444, 0.123035, -0.167927, -0.495625, -0.199956, 0.068883, 0.723931, 0.009655, -0.090646, -0.068099, 0.222937, 0.151728, -0.012121, -0.180396, 0.493400, -0.239792, 0.214232, 0.623327, -0.882265, -0.076568, 0.270417, 0.262005, -0.159450, -0.245492, 0.382587, -0.459214, 0.549104, 0.680443, -0.833021, -0.210035, -0.023942, -0.118600, -0.037804, -0.390170, 0.144016, -0.374999, 0.662098, 0.439656, -0.778409, -0.102704, -0.544684, -0.417875, -0.033455, 0.001501, 0.245303, -0.319164, 0.350567, 0.466551, -0.883407, 0.103925, -0.051465, -0.187628, 0.193578, -0.287665, 0.109329, -0.298949, 0.416274, 0.540159, -0.903539, 0.068367, -0.013366, -0.201001, 0.145740, -0.097936, 0.377548, -0.286210, 0.340607, 0.506289, -0.969419, -0.100052, -0.009602, -0.072005, -0.060367, -0.263087, 0.152510, -0.502103, 0.514319, 0.554985, -0.736104, -0.186202, -0.256104, -0.253181, -0.072989, -0.101163, 0.217902, 0.007487, 0.619536, 0.281210, -0.396679, 0.531994, 0.381346, 0.041423, -0.234672, -0.214369, -0.224360, 0.244830, 0.601063, 0.107790, -0.217262, 0.487178, -0.089135, -0.679046, -0.038024, 0.004646, 0.084194, 0.287781, 0.784936, -0.195097, -0.165504, 0.474003, 0.305016, -0.801478, -0.073563, -0.389001, -0.270540, 0.004322, 1.010570, 0.264363, 0.016301, -0.124922, 0.323481, 0.064791, 0.131689, -0.152626, -0.480551, 0.511734, 0.536552, -0.499241, -0.536614, 0.424139, -0.354188, 0.372521, -0.028876, -0.167669, -0.378829, 0.482933, -0.260328, 0.470246, 0.349899, -0.260289, 0.126486, -0.261836, 0.168719, -0.494366, -0.576694, -0.026567, -0.035529, 0.473445, 0.278322, 0.250644, 0.213131, -0.211152, -0.263874, -0.654253, -0.035420, 0.119946, 0.979075, 0.513809, -0.046026, 0.561497, -0.255440, -0.209413, 0.417520, -0.434919, -0.287429, 0.214196, 0.945906, 0.492613, -0.173064, -0.281109, 0.216795, 0.340621, 0.063062, -0.232346, -0.068737, 0.321090, 0.044775, 0.533350, -0.500392, 0.261533, -0.361427, -0.391309, 0.415658, -0.180409, -0.295335, 0.377362, 0.336206, -0.404328, -0.445182, 0.792060, 0.286055, 0.034343, 0.493976, 0.082332, -0.214102, -0.286745, 0.870611, -0.167683, -0.276397, 0.742991, -0.101424, 0.315830, 0.094457, 0.106527, -0.255906, -0.153912, 0.383678, 0.901700, 0.198266, 0.283713, -0.100667, -0.251495, 0.560973, -0.084675, -0.143515, 0.471566, 0.803808, 0.005310, -0.270442, -0.225433, 0.451843, 0.397073, 0.101127, -0.205038, 0.040202, -0.388598, 0.770909, -0.210607, -0.165335, 0.002518, 0.167914, 0.007900, 0.242907, 0.280941, -0.053010, -0.513257, 0.747119, 0.081538, -0.351404, 0.012701, -0.041111, 0.478170, -0.007998, 0.606059, 0.009751, -0.121684, 0.976736, -0.289531, -0.247156, 0.303385, -0.518967, -0.498850, 0.162306, 0.740825, 0.349377, 0.421654, 0.147089, -0.060352, -0.371213, -0.099848, 0.666706, 0.249366, 0.014330, 0.261940, 0.233538, 0.281421, 0.112745, 0.022834, -0.145551, -0.113547, 0.573834, -0.168349, 0.583782, 0.404052, 0.182232, -0.715105, 0.547301, -0.092359, -0.216775, -0.408807, 0.340390, 0.332337, 0.197394, 0.374598, -0.165973, 0.498958, 0.389075, 0.240179, 0.092363, 0.120440, 0.438677, 0.056721, 0.635222, -0.261615, -0.192684, -0.241239, 0.852453, 0.227950, 0.388772, 0.395189, -0.342714, -0.442729, 0.275008, -0.517184, 0.025549, 0.365280, 0.707978, 0.556280, 0.323709, 0.796285, 0.573863, -0.117484, 0.836244, -0.341560, -0.257210, 0.081877, 0.557900, 0.497115, 0.025551, 0.171832, 0.426555, -0.005603, 0.844148, -0.682576, -0.161935, 0.324649, 0.464093, 0.572193, 0.231717, 0.328693, -0.105647, -0.616817, 0.830260, 0.207166, 0.298833, 0.424774, -0.174132, 0.630858, -0.208609, 0.184933, -0.444173, -0.613834, 0.431122, -0.117997, -0.016905, 0.834976, 0.242294, 0.117233, 0.341789, -0.661291, 0.196304, -0.625800, 0.621748, 0.124326, 0.064116, 0.391637, 0.508285, 0.722045, -0.205662, -0.148990, -0.210975, -0.669591, 0.601343, 0.294286, 0.233585, 0.309872, 0.531271, 0.440354, -0.127900, 0.206207, -0.192879, 0.117907, 0.366460, -0.174510, 0.176695, 0.289792, 0.235220, 0.091637, -0.490516, 0.209883, 0.122939, -0.001460, 0.405285, 0.154328, 0.236997, 0.166960, 0.102207, 0.458644, 0.420566, -0.170919, -0.053698, -0.224933, 0.683077, 0.088619, 0.248876, 0.643673, 0.250573, 0.610549, -0.650930, -0.069203, 0.035106, -0.511788, 0.688885, -0.002979, 0.342734, 0.404496, 0.214397, 0.640739, -0.133855, -0.165933, 0.148287, -0.242833, 0.787389, -0.174259, 0.227789, 0.710880, 0.357169, 0.675334, -0.513722, -0.221702, 0.184971, -0.236980, 0.577287, -0.272223, 0.708504, 0.256918, 1.030692, 0.277382, 0.260898, -0.347551, 0.262504, -0.327579, 0.125377, -0.539644, -0.161901, 0.392225, 0.837675, -0.064383, 0.215368, -0.214487, -0.124263, -0.958034, 0.018553, -0.310642, 0.399934, 0.373746, 0.891236, 0.490869, 0.172274, 0.155325, -0.468124, -0.272778, 0.065684, 0.544532, 0.318113, 0.263798, 0.838223, 0.591717, -0.292362, -0.329944, -0.049823, -0.284735, 0.435564, 0.519969, 0.077261, 0.551250, 0.070986, -0.076308, -0.079943, 0.509624, 0.658498, -0.653779, 0.296476, 0.734529, -0.168927, 0.682284, 0.039202, -0.059656, -0.020470, -0.456050, -0.330104, -0.190122, 0.517165, 0.157205, 0.339028, 0.602122, 1.187996, -0.223545, 0.058223, 0.027611, 0.028564, -0.168185, 0.304013, -0.443461, 0.281398, -0.237631, 0.780994, 0.129826, 0.041818, -0.319674, 0.501939, -0.225379, 0.662227, 0.220341, 0.145444, 0.699918, 0.513855, 0.879396, -0.054547, -0.183292, 0.316911, 0.486559, 0.263852, -0.298814, 0.217954, 0.514509, 0.765883, 0.734110, -0.232847, 0.019035, 0.363033, 0.235816, 0.377252, -0.330794, 0.012199, 0.167281, 0.801641, 0.834346, -0.250898, -0.053920, -0.024566, 0.046560, 0.567810, -0.087734, 0.161366, 0.304540, 0.437705, 0.861272, -0.278927, -0.015241, -0.105328, -0.108451, 0.630971, -0.102085, -0.346786, 0.832853, -0.046470, -0.097641, 0.281785, -0.065995, 0.066297, -0.775134, 0.021281, 0.138969, -0.505203, 0.465003, 0.093257, 0.376216, 0.362896, -0.108109, 0.008486, -0.519738, 0.264205, 0.373728, 0.236718, 0.585240, 0.267262, 0.460732, -0.180526, -0.006680, -0.388652, -0.798578, 0.746064, 0.310363, -0.394492, 0.546037, 0.434977, 0.230436, 0.118747, -0.285037, 0.236867, -0.287974, 0.433107, 0.213912, -0.044852, 0.852522, 0.315065, 0.276512, -0.136146, -0.496726, 0.587864, 0.436734, 0.648000, 0.225957, 0.600381, 0.098626, 0.088369, 0.976931, -0.206021, 0.144347, -0.078804, -0.376217, 0.604396, 0.100328, -0.019136, 0.965475, 0.154794, -0.080730, 0.295959, -0.592048, 0.551173, -0.230956, 0.326576, -0.678250, 0.153529, 0.356934, 0.510800, 1.011035, 0.025693, 0.159664, 0.071349, 0.257231, 0.413673, -0.425607, 0.076667, 0.660797, 0.195357, -0.053896, 0.301842, 0.174626, -0.130184, -0.434703, 0.821714, 0.625046, 0.253373, 0.795015, 0.447527, 0.519896, 0.502583, -0.209436, 0.227452, -0.424898, 0.207646, -0.290059, 0.092539, 0.027163, 0.432795, 0.469183, -0.417894, -0.709103, -0.150095, -0.606145, 0.425626, -0.009781, 0.241083, 0.395479, 0.340056, 0.086426, -0.071949, -0.284269, 0.466597, -0.474964, 0.739932, 0.223694, 0.296778, 0.792420, -0.262564, 0.328602, 1.005177, 0.054301, 0.049991, -0.210691, 0.936822, -0.288481, -0.057446, 0.358556, 0.683798, 0.334612, -0.222270, -0.125825, 0.760348, 0.262726, 0.277721, -0.228360, 0.168336, 0.571902, -0.002845, 0.248279, -0.062110, 0.790765, 0.313355, -0.026595, 0.821232, -0.067817, 0.419164, 0.008725, 0.448593, 0.298407, -0.663906, 0.058934, -0.308777, -0.185801, 0.239561, -0.415678, 0.138422, 0.118211, 0.716660, 0.281295, -0.395879, -0.172450, 0.673880, 0.007699, 0.673562, 0.304945, 0.590968, -0.091458, 0.433667, 0.610079, -0.522160, 0.079629, -0.396401, -0.337334, 0.351687, -0.083641, 0.117802, 0.494664, 0.928343, -0.066945, -0.233698, -0.004114, 0.341353, -0.027613, 0.123415, -0.308469, 0.289937, 0.565449, 0.288838, 0.086696, -0.505833, -0.007771, 0.397694, 0.309957, 0.348490, -0.123101, 0.196721, 0.300356, 1.007742, 0.069287, -0.287663, -0.145836, 0.423119, -0.250658, 0.583763, -0.350950, -0.202823, 0.607193, 0.875995, 0.415871, -0.479934, -0.225203, 0.208999, 0.330072, 0.331402, -0.221136, 0.347216, 0.090208, 0.379028, 0.639204, -0.544133, -0.738808, 0.064622, -0.326787, 0.246381, 0.297980, 0.731525, 0.493615, -0.124448, -0.103207, 0.473303, -0.165398, -0.440464, -0.743567, 0.381233, 0.228180, 0.449414, 0.031107, 0.624783, 0.043468, -0.043945, -0.271973, 0.298839, -0.410707, 0.826330, -0.156878, -0.066580, -0.265262, -0.515207, 0.135406, -0.366355, 0.244181, -0.305347, 0.287624, -0.186236, 0.013021, 0.338042, -0.359633, -0.523759, 0.062086, -0.025182, 0.747300, 0.081188, -0.240117, 0.505793, 0.261981, 0.161826, -0.554133, -0.638963, 0.133684, -0.222107, 0.297914, -0.023053, -0.237720, 0.010086, -0.143508, -0.074758, -0.108251, -0.356966, -0.052390, -0.219883, 0.220625, 0.026599, -0.245502, 0.027015, -0.196740, 0.496000, -0.677485, -0.620065, -0.211667, -0.066918, 0.303980, 0.295844, 0.120972, -0.703175, 0.031545, 0.286258, -0.158507, -0.264395, 0.123605, -0.072379, 0.114207, -0.041661, -0.042726, 0.100965, -0.153281, 0.244192, -0.306746, -0.220855, -0.064084, -0.115042, -0.237000, 0.087771, 0.170044, -0.303222, -0.081940, 0.216767, -0.312408, -0.334372, -0.117312, -0.347481, -0.404942, -0.023069, 0.151898, -0.282194, -0.099685, 0.102830, -0.120780, -0.370721, -0.022547, -0.186478, -0.438823, -0.283727, 0.310684, 0.080728, -0.154927, 0.238830, 0.177939, -0.248436, -0.206368, -0.259578, -0.115973, -0.059289, 0.083333, 0.139652, -0.143272, 0.034075, 0.086696, -0.178918, -0.110228, -0.103800, -0.070995, -0.210565, 0.194852, 0.205774, -0.057884, 0.128997, 0.173056, -0.237602, 0.029921, -0.488943, -0.125628, -0.034225, 0.239815, 0.006702, -0.076876, -0.328822, -0.300737, -0.428017, -0.627363, 0.234112, -0.068305, -0.142995, 0.086115, 0.114106, 0.401141, -0.109066, -0.605197, -0.014847, -0.364139, -0.100448, -0.064118, -0.359018, 0.546945, -0.446361, 0.306676, -0.235259, -0.574781, -0.133593, -0.517238, -0.008064, -0.208825, -0.661834, 0.562058, -0.513038, 0.386492, 0.143818, -0.676109, -0.444253, -0.141000, -0.153059, -0.203913, 0.209332, 0.378949, 0.179914, -0.252284, 0.381471, -0.601921, -0.427749, -0.523471, -0.233021, -0.154617, 0.026909, 0.639371, 0.503613, -0.101220, 0.208715, -0.275238, -0.799335, -0.122463, 0.055289, -0.256145, -0.034831, 0.667988, -0.193706, 0.512519, 0.161837, -0.045493, -0.649522, -0.064226, 0.293720, -0.198671, -0.276797, 0.437706, -0.181472, 0.403094, -0.289385, -0.276829, -0.187333, -0.828590, 0.159232, 0.185027, -0.595385, 0.629305, -0.557075, 0.463259, -0.141211, -0.429547, -0.007079, -0.636570, -0.282832, 0.579403, -0.772375, 0.958868, -0.044317, 0.481514, 0.171078, -0.358397, -0.312265, -0.591096, 0.043892, 0.003310, -0.011421, -0.033274, 0.168981, -0.138427, 0.055026, -0.361363, -0.222736, -0.551328, 0.138012, 0.068907, 0.006586, 0.205130, 0.189503, -0.061759, -0.021335, -0.671943, -0.168076, -0.478954, -0.105828, 0.102748, 0.087697, 0.393530, 0.282820, -0.152741, 0.112987, 0.183730, -0.237266, -0.095947, 0.077058, -0.393924, -0.035883, 0.098312, -0.381099, -0.473742, 0.198248, -0.071044, -0.273080, -0.037456, 0.170270, -0.453161, 0.046168, 0.067314, -0.210315, -0.965256, 0.201089, 0.294746, -0.261142, -0.107284, 0.175050, -0.364785, 0.150527, 0.119484, 0.071121, -0.822116, 0.071136, 0.069886, -0.191773, -0.074297, 0.479772, -0.399598, -0.051347, 0.168607, -0.172686, -0.267645, 0.154220, 0.014064, -0.307933, -0.055913, 0.469658, -0.170456, -0.138949, 0.379548, 0.128626, -0.459364, 0.285629, 0.152398, -0.443895, 0.006772, 0.608384, -0.380689, -0.187119, 0.573354, -0.066500, -0.599650, 0.077077, 0.053966, -0.681258, -0.066488, -0.051904, -0.575848, 0.291078, 0.020396, -0.001301, -0.400963, 0.139519, -0.020113, -0.406116, 0.094055, 0.134628, -0.742220, 0.016093, 0.112107, 0.109539, -0.410809, 0.169802, -0.511651, -0.406587, 0.021447, -0.261328, -0.272369, 0.030817, -0.338631, -0.193578, -0.329386, 0.014063, -0.061707, -0.019035, -0.205232, -0.216485, 0.026403, 0.124274, 0.171230, -0.354763, -0.257786, 0.182309, -0.047528, -0.387358, -0.084047, -0.017040, -0.434105, -0.032351, -0.206149, -0.422347, 0.000257, -0.231711, 0.770983, 0.191277, 0.304380, 0.357628, -0.222649, 0.073868, -0.885531, 0.373691, 0.178870, -0.184743, 0.662650, 0.667604, 0.577330, -0.413296, 0.017968, -0.019761, 0.177633, 0.314231, -0.080180, 0.470049, 0.400442, 0.457715, 0.038414, -0.130856, 0.165456, 0.350073, -0.341880, 0.736091, 0.502089, 0.149127, 0.916284, 0.318609, 0.639726, -0.560940, 0.021516, -0.054755, -0.047569, 0.380159, 0.256544, 0.535385, 0.247726, 0.496948, 0.126922, -0.507527, -0.806290, -0.484862, -0.385372, 0.559179, 0.323148, 0.566086, 0.718984, 0.399274, -0.019517, -0.763770, 0.041009, -0.511978, -0.437465, 0.044349, -0.087775, 0.192097, 0.744607, 0.286834, 0.308772, 0.013201, 0.141834, 0.380112, -0.540464, 0.251112, 0.573720, 0.454877, 1.020248, -0.148053, -0.132479, -0.208410, -0.490209, -0.155669, -0.068476, 0.545404, -0.440928, 0.865912, 0.349436, 0.042326, 0.498622, -0.765412, 0.323647, -0.099804, -0.203037, 0.052914, 0.261760, 0.520093, 0.315942, 0.668810, 0.203405, 0.157272, -0.862435, -0.558510, -0.043978, 0.085636, -0.341271, 0.203754, 0.335065, 0.264372, -0.481233, -0.162827, -0.387856, 0.661865, -0.417701, -0.596760, 0.018453, 0.008388, -0.138463, -0.016612, -0.494910, -0.021849, -0.003119, 0.528503, -0.448962, -0.516661, -0.339204, 0.267810, 0.320998, 0.649825, 0.068934, -0.657600, 0.410388, -0.638033, -0.017562, 0.279964, 0.518813, 0.403459, -0.645140, 1.091024, -0.097991, 0.025198, -0.190863, 0.196432, 0.085778, -0.209195, 0.587808, 0.636989, 0.041290, 0.844664, 0.055715, 0.102544, -0.577942, 0.293036, 0.316706, 0.055734, -0.069489, 0.609369, 0.396991, 0.011862, -0.139090, -0.407821, -0.076978, -0.050591, 0.259569, 0.240828, 0.027979, 0.533754, 0.339755, -0.450821, -0.226961, -0.062839, -0.283865, -0.141216, 0.540008, 0.556066, -0.168250, 0.550205, 0.833181, -0.050030, 0.273096, -0.149980, 0.035955, 0.108328, 0.347184, -0.510951, 0.411243, 0.175043, -0.715711, 1.117845, -0.181499, 0.172702, -0.256628, 0.265378, 0.098220, -0.011756, 0.492169, 0.493465, 0.137414, -0.098606, 0.205290, 0.091873, 0.573818, 0.205992, -0.093614, 0.810730, 0.130105, 0.653056, -0.079836, 0.303021, 0.022922, -0.371863, 0.569515, -0.058262, 0.082953, 0.487135, 0.308063, 0.754042, 0.254917, 0.253218, -0.199368, -0.083205, 0.116436, 0.634706, -0.037237, 0.419704, 0.306316, 0.016264, 0.539481, 0.389601, 0.232240, -0.891019, -0.016863, -0.067592, -0.091978, 0.596635, -0.107624, 0.626944, 0.748948, 0.485040, 0.341187, -0.486638, 0.229712, -0.025097, -0.001389, -0.054518, 0.558816, 0.185362, -0.128088, 0.508091, 0.394792, -0.791312, 0.398625, -0.139550, 0.140172, 0.202837, -0.102905, 0.695205, 0.712638, 0.647936, 0.202914, 0.156261, 0.415589, 0.226447, -0.022941, 0.210218, -0.210784, -0.035991, 1.034006, 0.086811, 0.252072, -0.510425, 0.294767, 0.123674, 0.506869, -0.519866, 0.108179, 0.113635, 0.808980, 0.662583, 0.422711, -0.445314, 0.201613, 0.336054, 0.355632, -0.189927, -0.353419, 0.944901, 0.668090, 0.546040, 0.166611, 0.467683, 0.186309, 0.262643, 0.184994, 0.455502, -0.430197, 0.404588, 0.705477, 0.822018, 0.301432, -0.370004, 0.335810, 0.256468, 0.218280, 0.267592, -0.339932, 0.962047, 0.940076, 0.310429, -0.247809, -0.361949, -0.031154, 0.237250, 0.072406, 0.428039, 0.759681, 0.713147, 0.734894, 0.413745, -0.312375, -0.262201, 0.342668, -0.248134, 0.148801, 0.760046, 0.469202, 0.149641, 0.539420, 0.684875, 0.160707, 0.151103, 0.248077, 0.105202, 0.151909, 0.215978, 0.000786, 0.341188, 0.465674, 0.268497, -0.156966, -0.021143, 0.444583, 0.012289, 0.099479, 0.148008, 0.410761, 0.346002, 0.741740, 0.428372, -0.039646, 0.001798, 0.913244, 0.076478, 0.154070, 0.178087, 0.411878, 0.147943, 0.566952, 0.364522, -0.128199, 0.068219, 0.575419, 0.698225, -0.175933, 0.217558, 0.608383, 0.461450, 0.682488, 0.548406, -0.438648, 0.297123, 0.488469, 0.145934, 0.293829, 0.129486, 0.060803, 0.693601, 1.003674, 0.253384, -0.351479, 0.207679, 0.433487, 0.120630, 0.031820, 0.102449, 0.483209, 0.806259, 0.634763, 0.564464, -0.139701, -0.504673, -0.582008, -0.496998, -0.139949, 0.462386, 0.407279, 0.748704, 0.103876, 0.130820, 0.150874, 0.204986, 0.131589, 0.541892, 0.296128, 0.419189, -0.105494, 0.017899, 0.585090, 0.518159, 0.222694, -0.299873, 0.454252, -0.102146, 0.088074, 0.399950, 0.358102, 0.668326, 0.868723, 0.266504, -0.239636, -0.322080, 0.368721, -0.296832, 0.216913, -0.116364, -0.099335, 0.117895, 0.572783, 0.316079, 0.168500, 0.169194, 0.946628, 0.065714, -0.313770, 0.031792, 0.250574, 1.166542, 0.042886, -0.138753, -0.324404, -0.302444, 0.391765, -0.116458, 0.186949, -0.068483, 0.330555, 1.006942, 0.046624, 0.020268, -0.554557, -0.246592, 0.150691, -0.335196, 0.126494, 0.210014, 0.024414, 0.381999, 0.822643, 0.086894, -0.208109, -0.492601, 0.405155, 0.095616, 0.630407, 0.073757, 0.123120, 0.462996, 1.033366, 0.113449, -0.086583, 0.370503, -0.871885, -0.366876, -0.202261, 0.442337, -0.599011, -0.812824, 0.151786, 0.494670, 0.067586, -0.011839, 1.013288, 0.272511, -0.384542, 0.315195, -0.046064, 0.743152, 0.034367, -0.117107, -0.040799, -0.516665, 0.257288, -0.293035, -0.128916, 0.250033, 0.436867, 0.829806, 0.945038, 0.255959, -0.179834, -0.207908, 0.674714, -0.308832, 0.018415, 0.158111, -0.306453, 0.747317, 0.543674, 0.104676, 0.191066, 0.123844, 0.182870, -0.166898, 0.073710, 0.166904, -0.304310, 0.226635, 1.028785, 0.226980, 0.012712, -0.070540, -0.331122, -0.210486, -0.379224, -0.059121, 0.205894, 0.787089, 0.749656, 0.247481, -0.235503, 0.079654, 0.387449, 0.328955, -0.123891, -0.297870, -0.399095, 0.381321, 0.575655, 0.511375, 0.427038, -0.565917, 0.341382, 0.405283, 0.245234, 0.237082, -0.095639, 0.175083, 1.126346, -0.079266, -0.033255, -0.280808, 0.687560, -0.030545, 0.661491, 0.227605, -0.095615, 0.628884, 1.094554, 0.148665, -0.043068, -0.507084, 0.431580, 0.221159, 0.427479, 0.144355, -0.408260, 0.183486, 0.495263, 0.421345, -0.241916, 0.050734, 0.299042, -0.461491, -0.157695, 0.248851, -0.307478, 0.616591, 0.665891, 0.383220, -0.278904, -0.143107, 0.876493, -0.253671, -0.050495, 0.169524, -0.042761, -0.208406, 0.163641, 0.747517, 0.261879, -0.016581, 0.923543, -0.054153, -0.020102, 0.123235, -0.178353, -0.417928, 0.341076, 0.347807, 0.035686, -0.281631, 1.128998, 0.347535, -0.437548, 0.140502, 0.107672, -0.112265, -0.340961, 0.140410, 0.412651, -0.637968, 0.341087, -0.428459, 0.066068, 0.374575, 0.403712, 0.333753, 0.955598, -0.095443, 0.044689, -0.141266, 0.128418, 0.674085, 0.720191, -0.131678, 0.215453, 0.287292, 0.685672, 0.188467, 0.577805, 0.453473, 0.457315, 0.394842, 0.846587, 0.647567, 0.826941]
}
